Language model created by QuickLM on Sun Jan 24 02:30:09 EST 2016
Copyright (c) 1996-2010 Carnegie Mellon University and Alexander I. Rudnicky

The model is in standard ARPA format, designed by Doug Paul while he was at MITRE.

The code that was used to produce this language model is available in Open Source.
Please visit http://www.speech.cs.cmu.edu/tools/ for more information

The (fixed) discount mass is 0.5. The backoffs are computed using the ratio method.
This model based on a corpus of 49 sentences and 72 words

\data\
ngram 1=72
ngram 2=123
ngram 3=93

\1-grams:
-0.8919 </s> -0.3010
-0.8919 <s> -0.2362
-2.5821 A -0.2999
-2.5821 AGAIN -0.2414
-2.5821 ANYTHING -0.2414
-2.1049 ARE -0.2976
-2.2810 BACKWARD -0.2414
-2.2810 BEGIN -0.2942
-2.5821 BOTTLE -0.2414
-2.5821 BUDDY -0.2414
-2.5821 BUSY -0.2414
-2.5821 CANCEL -0.2988
-2.5821 CHARITY'S -0.2999
-2.5821 CURRENT -0.2988
-2.5821 DISMISS -0.2414
-2.2810 DOING -0.2401
-2.5821 DOWN -0.2414
-2.5821 DRIVING -0.2999
-2.5821 DUCK -0.2414
-2.5821 END -0.2999
-2.5821 ENTER -0.2965
-2.2810 EXPLORATION -0.2414
-2.2810 FORWARD -0.2414
-2.1049 GO -0.2942
-2.5821 GREETINGS -0.2988
-2.5821 HAPPY -0.2999
-2.5821 HAVE -0.2999
-2.5821 HELLO -0.2414
-2.5821 HOW -0.2976
-2.5821 HUNTING -0.2414
-2.5821 INTRODUCE -0.2999
-2.5821 LAUNCH -0.2999
-2.5821 LEFT -0.2414
-2.5821 ME -0.2414
-1.9800 MIMIC -0.2414
-2.2810 MOVE -0.2965
-2.5821 MUTE -0.2414
-2.1049 NO -0.2388
-2.5821 NOTHING -0.2414
-2.5821 OFFICE -0.2414
-2.5821 OKAY -0.2414
-2.5821 POWER -0.2999
-2.5821 PROBLEM -0.2414
-2.5821 PROFESSOR -0.2414
-2.5821 REST -0.2414
-2.5821 RIGHT -0.2414
-2.5821 SHOW -0.2999
-2.5821 SHUT -0.2999
-2.5821 SNAP -0.2414
-2.5821 SPIN -0.2414
-2.5821 SPINNING -0.2414
-2.5821 SQUIRTLE -0.2414
-2.5821 START -0.2965
-2.1049 STOP -0.2942
-2.5821 SUCCESS -0.2414
-2.5821 SURE -0.2414
-2.5821 TAPE -0.2414
-2.2810 TASK -0.2414
-2.5821 THANKS -0.2414
-2.2810 TO -0.2988
-2.5821 TRIP -0.2414
-2.5821 TRY -0.2999
-2.2810 TURN -0.2988
-2.2810 TURTLEBOT -0.2414
-2.5821 UP -0.2414
-2.5821 WAVE -0.2988
-2.5821 WHAT -0.2976
-2.5821 WHATS -0.2999
-2.5821 YES -0.2414
-2.1049 YOU -0.2375
-2.5821 YOUR -0.2988
-2.5821 YOURSELF -0.2414

\2-grams:
-1.9912 <s> ARE 0.0000
-1.6902 <s> BEGIN 0.0000
-1.9912 <s> BOTTLE 0.0000
-1.9912 <s> CANCEL 0.0000
-1.9912 <s> DISMISS 0.0000
-1.9912 <s> DOING -0.1761
-1.9912 <s> DUCK 0.0000
-1.9912 <s> END 0.0000
-1.9912 <s> ENTER 0.0000
-1.5141 <s> GO 0.0000
-1.9912 <s> GREETINGS 0.0000
-1.9912 <s> HAPPY 0.0000
-1.9912 <s> HAVE 0.0000
-1.9912 <s> HELLO 0.0000
-1.9912 <s> HOW 0.0000
-1.9912 <s> INTRODUCE 0.0000
-1.9912 <s> LAUNCH 0.0000
-1.6902 <s> MOVE 0.0000
-1.9912 <s> MUTE 0.0000
-1.5141 <s> NO 0.0000
-1.9912 <s> NOTHING 0.0000
-1.9912 <s> OKAY 0.0000
-1.9912 <s> POWER 0.0000
-1.9912 <s> SHOW 0.0000
-1.9912 <s> SNAP 0.0000
-1.9912 <s> SPIN 0.0000
-1.9912 <s> SPINNING 0.0000
-1.9912 <s> SQUIRTLE 0.0000
-1.9912 <s> START 0.0000
-1.5141 <s> STOP 0.0000
-1.9912 <s> SUCCESS 0.0000
-1.9912 <s> SURE 0.0000
-1.9912 <s> TAPE 0.0000
-1.9912 <s> TRY 0.0000
-1.6902 <s> TURN 0.0000
-1.9912 <s> TURTLEBOT 0.0000
-1.9912 <s> WAVE 0.0000
-1.9912 <s> WHAT 0.0000
-1.9912 <s> WHATS 0.0000
-1.9912 <s> YES 0.0000
-0.3010 A REST 0.0000
-0.3010 AGAIN </s> -0.3010
-0.3010 ANYTHING </s> -0.3010
-0.3010 ARE YOU 0.0000
-0.3010 BACKWARD </s> -0.3010
-0.6021 BEGIN EXPLORATION 0.0000
-0.6021 BEGIN MIMIC 0.0000
-0.3010 BOTTLE </s> -0.3010
-0.3010 BUDDY </s> -0.3010
-0.3010 BUSY </s> -0.3010
-0.3010 CANCEL EXPLORATION 0.0000
-0.3010 CHARITY'S OFFICE 0.0000
-0.3010 CURRENT TASK 0.0000
-0.3010 DISMISS </s> -0.3010
-0.6021 DOING </s> -0.3010
-0.6021 DOING ANYTHING 0.0000
-0.3010 DOWN </s> -0.3010
-0.3010 DRIVING BUDDY 0.0000
-0.3010 DUCK </s> -0.3010
-0.3010 END TRIP 0.0000
-0.3010 ENTER MIMIC 0.0000
-0.3010 EXPLORATION </s> -0.3010
-0.3010 FORWARD </s> -0.3010
-0.7782 GO BACKWARD 0.0000
-0.7782 GO FORWARD 0.0000
-0.7782 GO TO -0.1761
-0.3010 GREETINGS TURTLEBOT 0.0000
-0.3010 HAPPY HUNTING 0.0000
-0.3010 HAVE A 0.0000
-0.3010 HELLO </s> -0.3010
-0.3010 HOW ARE 0.0000
-0.3010 HUNTING </s> -0.3010
-0.3010 INTRODUCE YOURSELF 0.0000
-0.3010 LAUNCH DRIVING 0.0000
-0.3010 LEFT </s> -0.3010
-0.3010 ME </s> -0.3010
-0.3010 MIMIC </s> -0.3010
-0.6021 MOVE BACKWARD 0.0000
-0.6021 MOVE FORWARD 0.0000
-0.3010 MUTE </s> -0.3010
-0.7782 NO </s> -0.3010
-0.7782 NO PROBLEM 0.0000
-0.7782 NO THANKS 0.0000
-0.3010 NOTHING </s> -0.3010
-0.3010 OFFICE </s> -0.3010
-0.3010 OKAY </s> -0.3010
-0.3010 POWER SHUT 0.0000
-0.3010 PROBLEM </s> -0.3010
-0.3010 PROFESSOR </s> -0.3010
-0.3010 REST </s> -0.3010
-0.3010 RIGHT </s> -0.3010
-0.3010 SHOW ME 0.0000
-0.3010 SHUT DOWN 0.0000
-0.3010 SNAP </s> -0.3010
-0.3010 SPIN </s> -0.3010
-0.3010 SPINNING </s> -0.3010
-0.3010 SQUIRTLE </s> -0.3010
-0.3010 START MIMIC 0.0000
-0.7782 STOP CURRENT 0.0000
-0.7782 STOP MIMIC 0.0000
-0.7782 STOP YOUR 0.0000
-0.3010 SUCCESS </s> -0.3010
-0.3010 SURE </s> -0.3010
-0.3010 TAPE </s> -0.3010
-0.3010 TASK </s> -0.3010
-0.3010 THANKS </s> -0.3010
-0.6021 TO CHARITY'S 0.0000
-0.6021 TO PROFESSOR 0.0000
-0.3010 TRIP </s> -0.3010
-0.3010 TRY AGAIN 0.0000
-0.6021 TURN LEFT 0.0000
-0.6021 TURN RIGHT 0.0000
-0.3010 TURTLEBOT </s> -0.3010
-0.3010 UP </s> -0.3010
-0.3010 WAVE TO -0.1761
-0.3010 WHAT ARE 0.0000
-0.3010 WHATS UP 0.0000
-0.3010 YES </s> -0.3010
-0.7782 YOU </s> -0.3010
-0.7782 YOU BUSY 0.0000
-0.7782 YOU DOING -0.1761
-0.3010 YOUR TASK 0.0000
-0.3010 YOURSELF </s> -0.3010

\3-grams:
-0.3010 <s> ARE YOU
-0.6021 <s> BEGIN EXPLORATION
-0.6021 <s> BEGIN MIMIC
-0.3010 <s> BOTTLE </s>
-0.3010 <s> CANCEL EXPLORATION
-0.3010 <s> DISMISS </s>
-0.3010 <s> DOING ANYTHING
-0.3010 <s> DUCK </s>
-0.3010 <s> END TRIP
-0.3010 <s> ENTER MIMIC
-0.7782 <s> GO BACKWARD
-0.7782 <s> GO FORWARD
-0.7782 <s> GO TO
-0.3010 <s> GREETINGS TURTLEBOT
-0.3010 <s> HAPPY HUNTING
-0.3010 <s> HAVE A
-0.3010 <s> HELLO </s>
-0.3010 <s> HOW ARE
-0.3010 <s> INTRODUCE YOURSELF
-0.3010 <s> LAUNCH DRIVING
-0.6021 <s> MOVE BACKWARD
-0.6021 <s> MOVE FORWARD
-0.3010 <s> MUTE </s>
-0.7782 <s> NO </s>
-0.7782 <s> NO PROBLEM
-0.7782 <s> NO THANKS
-0.3010 <s> NOTHING </s>
-0.3010 <s> OKAY </s>
-0.3010 <s> POWER SHUT
-0.3010 <s> SHOW ME
-0.3010 <s> SNAP </s>
-0.3010 <s> SPIN </s>
-0.3010 <s> SPINNING </s>
-0.3010 <s> SQUIRTLE </s>
-0.3010 <s> START MIMIC
-0.7782 <s> STOP CURRENT
-0.7782 <s> STOP MIMIC
-0.7782 <s> STOP YOUR
-0.3010 <s> SUCCESS </s>
-0.3010 <s> SURE </s>
-0.3010 <s> TAPE </s>
-0.3010 <s> TRY AGAIN
-0.6021 <s> TURN LEFT
-0.6021 <s> TURN RIGHT
-0.3010 <s> TURTLEBOT </s>
-0.3010 <s> WAVE TO
-0.3010 <s> WHAT ARE
-0.3010 <s> WHATS UP
-0.3010 <s> YES </s>
-0.3010 A REST </s>
-0.7782 ARE YOU </s>
-0.7782 ARE YOU BUSY
-0.7782 ARE YOU DOING
-0.3010 BEGIN EXPLORATION </s>
-0.3010 BEGIN MIMIC </s>
-0.3010 CANCEL EXPLORATION </s>
-0.3010 CHARITY'S OFFICE </s>
-0.3010 CURRENT TASK </s>
-0.3010 DOING ANYTHING </s>
-0.3010 DRIVING BUDDY </s>
-0.3010 END TRIP </s>
-0.3010 ENTER MIMIC </s>
-0.3010 GO BACKWARD </s>
-0.3010 GO FORWARD </s>
-0.3010 GO TO CHARITY'S
-0.3010 GREETINGS TURTLEBOT </s>
-0.3010 HAPPY HUNTING </s>
-0.3010 HAVE A REST
-0.3010 HOW ARE YOU
-0.3010 INTRODUCE YOURSELF </s>
-0.3010 LAUNCH DRIVING BUDDY
-0.3010 MOVE BACKWARD </s>
-0.3010 MOVE FORWARD </s>
-0.3010 NO PROBLEM </s>
-0.3010 NO THANKS </s>
-0.3010 POWER SHUT DOWN
-0.3010 SHOW ME </s>
-0.3010 SHUT DOWN </s>
-0.3010 START MIMIC </s>
-0.3010 STOP CURRENT TASK
-0.3010 STOP MIMIC </s>
-0.3010 STOP YOUR TASK
-0.3010 TO CHARITY'S OFFICE
-0.3010 TO PROFESSOR </s>
-0.3010 TRY AGAIN </s>
-0.3010 TURN LEFT </s>
-0.3010 TURN RIGHT </s>
-0.3010 WAVE TO PROFESSOR
-0.3010 WHAT ARE YOU
-0.3010 WHATS UP </s>
-0.3010 YOU BUSY </s>
-0.3010 YOU DOING </s>
-0.3010 YOUR TASK </s>

\end\

